digraph Tree {
node [shape=box, style="rounded", color="black", fontname=helvetica] ;
edge [fontname=helvetica] ;
0 [label="director avg score <= 6.2\nmse = 1.0\nsamples = 3471\nvalue = 6.4"] ;
1 [label="director avg score <= 5.4\nmse = 0.7\nsamples = 1330\nvalue = 5.5"] ;
0 -> 1 [labeldistance=2.5, labelangle=45, headlabel="True"] ;
2 [label="star avg score <= 4.5\nmse = 0.6\nsamples = 389\nvalue = 4.8"] ;
1 -> 2 ;
3 [label="mse = 0.5\nsamples = 60\nvalue = 3.5"] ;
2 -> 3 ;
4 [label="mse = 0.3\nsamples = 329\nvalue = 5.0"] ;
2 -> 4 ;
5 [label="star avg score <= 5.8\nmse = 0.4\nsamples = 941\nvalue = 5.9"] ;
1 -> 5 ;
6 [label="mse = 0.4\nsamples = 261\nvalue = 5.4"] ;
5 -> 6 ;
7 [label="mse = 0.3\nsamples = 680\nvalue = 6.0"] ;
5 -> 7 ;
8 [label="director avg score <= 7.0\nmse = 0.5\nsamples = 2141\nvalue = 6.9"] ;
0 -> 8 [labeldistance=2.5, labelangle=-45, headlabel="False"] ;
9 [label="star avg score <= 6.6\nmse = 0.4\nsamples = 1442\nvalue = 6.6"] ;
8 -> 9 ;
10 [label="mse = 0.4\nsamples = 814\nvalue = 6.4"] ;
9 -> 10 ;
11 [label="mse = 0.3\nsamples = 628\nvalue = 6.9"] ;
9 -> 11 ;
12 [label="director avg score <= 7.4\nmse = 0.3\nsamples = 699\nvalue = 7.4"] ;
8 -> 12 ;
13 [label="mse = 0.3\nsamples = 410\nvalue = 7.2"] ;
12 -> 13 ;
14 [label="mse = 0.2\nsamples = 289\nvalue = 7.7"] ;
12 -> 14 ;
}