digraph Tree {
node [shape=box, style="rounded", color="black", fontname=helvetica] ;
edge [fontname=helvetica] ;
0 [label="writer avg score <= 6.4\nmse = 1.0\nsamples = 3457\nvalue = 6.4"] ;
1 [label="writer avg score <= 5.4\nmse = 0.7\nsamples = 1608\nvalue = 5.7"] ;
0 -> 1 [labeldistance=2.5, labelangle=45, headlabel="True"] ;
2 [label="star avg score <= 4.5\nmse = 0.6\nsamples = 419\nvalue = 4.8"] ;
1 -> 2 ;
3 [label="mse = 0.6\nsamples = 54\nvalue = 3.5"] ;
2 -> 3 ;
4 [label="mse = 0.3\nsamples = 365\nvalue = 5.0"] ;
2 -> 4 ;
5 [label="director avg score <= 6.2\nmse = 0.4\nsamples = 1189\nvalue = 6.0"] ;
1 -> 5 ;
6 [label="mse = 0.3\nsamples = 662\nvalue = 5.7"] ;
5 -> 6 ;
7 [label="mse = 0.3\nsamples = 527\nvalue = 6.3"] ;
5 -> 7 ;
8 [label="writer avg score <= 7.2\nmse = 0.4\nsamples = 1849\nvalue = 7.0"] ;
0 -> 8 [labeldistance=2.5, labelangle=-45, headlabel="False"] ;
9 [label="director avg score <= 6.7\nmse = 0.3\nsamples = 1244\nvalue = 6.8"] ;
8 -> 9 ;
10 [label="mse = 0.3\nsamples = 679\nvalue = 6.6"] ;
9 -> 10 ;
11 [label="mse = 0.2\nsamples = 565\nvalue = 7.0"] ;
9 -> 11 ;
12 [label="writer avg score <= 7.5\nmse = 0.2\nsamples = 605\nvalue = 7.5"] ;
8 -> 12 ;
13 [label="mse = 0.1\nsamples = 362\nvalue = 7.3"] ;
12 -> 13 ;
14 [label="mse = 0.1\nsamples = 243\nvalue = 7.9"] ;
12 -> 14 ;
}